// Auto-generated — Layer: fc2  Type: Dense
// Weight shape: (64, 32)  (in_features, out_features)

#pragma once
#include <cstdint>

#define FC2_IN   64
#define FC2_OUT  32
#define FC2_W_SCALE 0.01347749f
#define FC2_W_ZP    41

static const int8_t fc2_w[64][32] = 
{{-21, 43, -30, 43, 46, 25, 53, 37, -33, 32, 50, 34, 25, 57, 31, 43, -32, -30, 48, 38, -43, 33, 26, 26, 52, 50, 42, 22, -21, 36, 43, 45}, {-31, -20, 37, 15, 35, 44, 43, 37, 35, -74, 42, 33, 43, 39, -79, -19, 39, 32, 35, 20, 41, 107, 44, 42, 41, 39, 37, 34, -31, 17, -44, -45}, {32, 84, -24, 33, -25, 28, 23, 33, -24, 39, 24, 32, -62, 37, 38, 79, 40, -24, 49, 28, 38, -20, 28, -60, 23, 41, 46, 50, 32, 27, 40, 39}, {38, -14, 77, 13, 30, 29, 26, 39, 74, 32, 25, 38, 43, -64, 33, -17, 43, 78, -65, 8, 38, 36, 27, 42, 25, -64, -47, 36, 45, 7, 48, 49}, {-23, 41, -30, 43, 47, 24, 54, 35, -32, 34, 53, 34, 22, 58, 34, 36, -34, -30, 47, 37, -41, 35, 26, 23, 53, 55, 41, 22, -23, 37, 42, 42}, {35, 55, -21, 28, -16, 32, 23, 41, -19, 46, 25, 41, -54, 44, 47, 56, 40, -21, 52, 30, 38, -1, 33, -54, 25, 46, 46, 56, 34, 30, 37, 36}, {42, 36, 40, -62, -28, 47, 21, 44, 44, 25, 23, 40, 29, -29, 26, 37, 66, 42, 33, 23, 50, 39, 49, 28, 23, -30, 41, 54, 41, 23, -19, -20}, {29, 85, -29, 32, -30, 28, 31, 40, -30, 36, 31, 38, -73, 42, 38, 83, 40, -30, 47, 18, 36, -38, 29, -70, 29, 39, 40, 49, 30, 19, 42, 39}, {33, 37, -24, 28, 40, 47, 28, -38, -27, 30, 27, -39, 23, 39, 31, 39, 40, -25, 51, 45, 36, 51, 46, 24, 25, 40, 68, 26, 34, 45, -37, -36}, {25, 39, 44, 55, 39, -68, 21, 42, 42, 34, 17, 41, 24, 36, 32, 38, -30, 43, -6, 12, -25, -45, -66, 24, 21, 37, -32, 33, 27, 12, 106, 107}, {47, -52, 89, -12, 40, 27, 38, 49, 89, 21, 41, 42, 64, -91, 29, -55, 54, 91, -78, -20, 41, 52, 25, 62, 39, -101, -82, 45, 52, -15, 74, 72}, {-24, -22, 36, 24, 39, 49, 49, 37, 35, -64, 44, 39, 46, 39, -66, -21, 40, 39, 36, 23, 35, 63, 49, 46, 47, 38, 39, 25, -26, 26, -30, -32}, {37, 53, -14, 19, -16, 34, 25, 42, -13, 49, 25, 42, -53, 46, 52, 53, 39, -14, 45, 34, 37, -5, 34, -54, 27, 46, 41, 53, 37, 32, 37, 39}, {43, 47, 39, -72, -39, 48, 29, 39, 40, 25, 30, 41, 26, -49, 22, 47, 69, 43, 36, 17, 55, 34, 47, 27, 27, -51, 39, 43, 41, 16, -21, -21}, {73, 37, 40, 2, 47, 31, -78, -35, 40, 41, -80, -34, 19, -24, 44, 35, 37, 41, 41, 50, 33, -28, 30, 19, -81, -16, 40, 24, 79, 49, 45, 43}, {44, 34, 46, 17, 45, 29, -63, -16, 47, 50, -62, -10, 25, -9, 49, 35, 47, 46, 34, 61, 45, -11, 30, 26, -64, -5, 40, 29, 45, 58, 37, 37}, {-16, 41, 45, 22, -26, 29, 50, 66, 44, 27, 50, 58, 29, 34, 25, 41, 41, 42, -12, -70, 40, 41, 30, 29, 49, 34, -17, 52, -15, -72, 44, 44}, {-34, -26, 41, 25, 37, 47, 53, 32, 39, -64, 52, 33, 43, 33, -67, -28, 36, 41, 35, 32, 36, 68, 47, 43, 53, 36, 41, 12, -31, 31, -21, -22}, {52, 32, 42, 18, 41, 29, -64, -17, 45, 48, -61, -12, 26, -13, 47, 35, 47, 46, 33, 55, 44, -14, 29, 27, -63, -8, 40, 30, 50, 58, 37, 36}, {35, 34, -46, 34, 51, 50, 28, -60, -42, 15, 28, -50, 31, 38, 17, 32, 37, -44, 62, 42, 36, 53, 47, 30, 25, 42, 87, 18, 34, 43, -47, -46}, {33, 28, 39, 39, 43, -51, 47, 39, 42, 59, 48, 38, 12, 40, 61, 27, -17, 40, 22, 1, -9, -10, -47, 13, 48, 39, -23, 30, 35, 0, 61, 61}, {-2, 45, 43, 19, -28, 29, 53, 48, 44, 27, 53, 43, 28, 35, 24, 45, 44, 44, -27, -64, 42, 36, 29, 29, 52, 34, -22, 58, -2, -69, 47, 45}, {30, 39, -27, 29, 41, 48, 26, -34, -29, 29, 28, -38, 23, 40, 28, 36, 39, -27, 52, 45, 34, 49, 46, 23, 27, 41, 75, 29, 31, 45, -32, -35}, {-16, 40, 42, 34, -10, 13, 51, 61, 43, 33, 54, 54, 17, 36, 34, 40, 44, 43, 13, -56, 45, 40, 14, 17, 51, 35, -21, 54, -17, -58, 40, 40}, {-14, 42, 44, 33, -12, 20, 55, 52, 43, 34, 56, 45, 24, 36, 34, 42, 40, 41, 0, -60, 42, 38, 19, 23, 55, 34, -21, 59, -13, -62, 42, 41}, {45, -25, 73, 18, 42, 27, 24, 35, 70, 24, 25, 36, 45, -48, 25, -27, 36, 74, -51, 14, 36, 36, 30, 44, 26, -49, -36, 34, 41, 15, 45, 48}, {26, -72, 110, 21, 47, 19, 19, 40, 104, 23, 20, 38, 28, -33, 19, -70, 27, 116, -37, 21, 26, 52, 21, 28, 20, -30, -48, 0, 24, 23, 40, 38}, {-92, 29, 26, 34, 24, 38, 68, 66, 27, 17, 68, 64, 30, 54, 17, 26, 20, 27, 39, 19, 18, 70, 40, 32, 67, 55, 29, 18, -90, 18, 41, 43}, {40, 32, 46, -71, -25, 52, 14, 42, 47, 16, 12, 43, 25, -36, 16, 31, 81, 44, 29, 20, 62, 36, 51, 24, 15, -28, 39, 54, 41, 20, -23, -25}, {53, 30, 45, 48, 48, -89, 17, 34, 43, 24, 18, 34, 30, 21, 33, 32, -58, 47, -55, 16, -53, -66, -86, 32, 22, 21, -69, 24, 55, 22, 117, 122}, {-12, -18, 33, 29, 49, 48, 52, 31, 34, -64, 50, 30, 54, 34, -63, -17, 34, 33, 30, 24, 25, 81, 48, 54, 50, 30, 35, 27, -13, 23, -4, -3}, {-24, -26, 35, 25, 40, 48, 46, 40, 37, -73, 46, 36, 49, 35, -72, -26, 38, 38, 34, 26, 37, 58, 47, 49, 49, 39, 41, 26, -24, 27, -26, -26}, {36, 50, -22, 26, -13, 32, 29, 41, -19, 51, 29, 42, -53, 49, 51, 49, 40, -21, 53, 27, 38, -1, 33, -52, 30, 49, 46, 52, 38, 29, 35, 34}, {-27, 40, -37, 42, 45, 27, 49, 33, -37, 26, 50, 32, 19, 65, 26, 44, -32, -38, 42, 36, -35, 37, 27, 19, 50, 63, 45, 29, -27, 34, 38, 38}, {41, -25, 37, 55, 47, 29, 27, -33, 38, 26, 27, -33, 51, 39, 27, -26, -18, 38, 38, 54, -18, 43, 28, 51, 27, 38, 38, -72, 39, 56, 36, 37}, {39, -34, 81, 23, 31, 24, 20, 43, 77, 19, 19, 44, 44, -30, 18, -34, 39, 78, -37, 15, 42, 42, 23, 45, 18, -28, -31, 30, 41, 14, 35, 37}, {37, 32, 48, 61, 51, -50, 31, 51, 48, 52, 30, 47, 29, 43, 51, 32, -17, 45, -11, 26, -4, -7, -49, 29, 29, 41, -20, 27, 36, 25, 47, 51}, {26, 28, 37, 28, 68, -79, 45, 25, 38, 41, 46, 26, 44, 35, 43, 28, -77, 39, -29, 19, -65, -25, -75, 45, 43, 33, -41, 3, 28, 16, 111, 120}, {45, -34, 72, 18, 38, 22, 23, 46, 66, 23, 25, 45, 42, -26, 23, -35, 45, 69, -37, 29, 45, 47, 23, 45, 22, -23, -30, 20, 46, 27, 43, 40}, {37, 54, -43, 35, 54, 49, 22, -64, -44, 20, 24, -65, 26, 48, 18, 55, 30, -46, 46, 53, 31, 38, 50, 26, 26, 42, 72, 16, 36, 55, -34, -33}, {-9, 35, 50, 27, -40, 17, 50, 76, 51, 31, 49, 70, 22, 35, 30, 35, 40, 49, -40, -92, 40, 30, 18, 22, 48, 33, -39, 48, -8, -96, 46, 47}, {30, 81, -36, 27, -36, 30, 29, 34, -33, 40, 26, 34, -55, 42, 44, 83, 35, -38, 46, 21, 36, -27, 30, -56, 29, 43, 49, 46, 31, 19, 35, 35}, {34, -36, 39, 48, 55, 23, 22, -18, 38, 37, 23, -15, 57, 38, 38, -40, -20, 35, 38, 51, -16, 53, 22, 55, 25, 40, 42, -77, 30, 50, 35, 37}, {18, -56, 28, 53, 127, 12, 28, -34, 24, 9, 27, -27, 48, 46, 19, -58, -81, 30, 44, 58, -73, 37, 17, 52, 23, 42, 27, -120, 29, 61, 71, 67}, {26, 66, -59, 42, 32, 42, 39, 17, -64, 35, 40, 19, 25, 52, 34, 65, 25, -60, 51, 44, 26, 29, 42, 24, 39, 54, 57, 42, 26, 43, 26, 25}, {104, 26, 46, 6, 41, 24, -128, -27, 42, 43, -121, -23, 9, -15, 39, 30, 33, 43, 34, 48, 41, -31, 24, 9, -122, -9, 38, 18, 103, 53, 34, 37}, {-7, 42, 47, 21, -27, 23, 50, 69, 47, 26, 49, 63, 22, 31, 26, 41, 42, 47, -17, -64, 40, 30, 23, 22, 49, 32, -25, 48, -6, -66, 48, 51}, {35, 29, 44, 53, 39, -55, 16, 52, 41, 46, 16, 53, 35, 45, 47, 29, -16, 45, -37, 43, -1, -7, -53, 35, 15, 45, -15, 5, 34, 44, 62, 64}, {72, 29, 18, 35, 53, 38, 35, -96, 18, 23, 35, -112, 35, 37, 24, 32, 24, 21, 46, 60, 28, 32, 39, 36, 34, 36, 52, 3, 73, 60, 8, 12}, {28, -45, 35, 60, 86, 23, 21, -41, 34, 14, 19, -36, 50, 47, 15, -47, -38, 32, 42, 56, -35, 48, 22, 49, 19, 44, 43, -89, 27, 55, 44, 42}, {69, 48, 66, -88, -89, 48, 20, 60, 68, 37, 21, 56, 26, -100, 33, 49, 76, 66, -16, -31, 54, 11, 52, 24, 19, -113, -1, 71, 65, -28, -3, -5}, {31, 90, -34, 23, -27, 32, 32, 33, -32, 42, 31, 36, -64, 42, 43, 91, 39, -33, 49, 22, 37, -14, 31, -63, 31, 42, 45, 51, 31, 21, 31, 33}, {37, 57, -25, 35, -5, 28, 36, 37, -23, 44, 33, 38, -45, 45, 48, 59, 35, -22, 56, 22, 36, 0, 28, -45, 35, 47, 50, 48, 38, 22, 33, 34}, {73, 37, 38, 30, 32, 22, -67, -16, 40, 44, -68, -12, 26, -14, 43, 34, 45, 37, 31, 48, 47, -23, 21, 26, -69, -13, 37, 14, 73, 49, 34, 32}, {28, 40, 16, 60, 56, 33, 38, 9, 16, 27, 34, 9, 44, 48, 25, 42, -67, 19, 38, 46, -109, 22, 33, 42, 34, 46, 41, 0, 29, 48, 90, 90}, {-26, -26, 38, 28, 40, 50, 46, 34, 42, -64, 50, 35, 42, 36, -68, -26, 41, 40, 35, 26, 35, 65, 49, 42, 50, 39, 41, 19, -25, 27, -28, -30}, {37, 31, 45, 55, 45, -56, 22, 48, 47, 47, 23, 50, 32, 44, 49, 32, -15, 46, -30, 38, -2, -6, -54, 32, 23, 43, -15, 14, 37, 39, 59, 60}, {34, -22, 36, 61, 75, 25, 20, -34, 35, 24, 23, -30, 50, 40, 21, -23, -24, 35, 35, 50, -22, 41, 26, 51, 22, 39, 40, -66, 35, 52, 36, 36}, {42, 35, 46, -66, -27, 50, 19, 46, 43, 31, 19, 44, 25, -22, 30, 36, 61, 43, 31, 29, 52, 44, 49, 24, 17, -21, 37, 51, 41, 27, -24, -24}, {-42, 43, -39, 40, 47, 26, 49, 34, -40, 31, 48, 35, 26, 63, 30, 45, -33, -38, 49, 27, -40, 41, 25, 25, 48, 63, 44, 26, -40, 29, 33, 33}, {-24, -29, 41, 31, 37, 50, 47, 37, 36, -73, 49, 35, 44, 34, -72, -28, 38, 41, 33, 30, 36, 61, 50, 44, 50, 34, 39, 13, -25, 30, -21, -21}, {69, 35, 44, 13, 41, 30, -60, -21, 41, 45, -62, -16, 22, -17, 43, 32, 40, 40, 32, 47, 39, -23, 29, 23, -63, -13, 37, 26, 68, 47, 37, 40}, {46, 29, 50, -71, -15, 50, 16, 42, 48, 37, 14, 43, 18, -21, 36, 28, 61, 49, 27, 35, 48, 45, 50, 18, 14, -16, 32, 54, 48, 35, -23, -22}, {34, 32, 46, 58, 47, -51, 33, 46, 49, 50, 34, 46, 25, 40, 53, 33, -14, 48, 0, 11, -3, -12, -49, 24, 34, 39, -22, 30, 34, 10, 58, 59}};